{
  "hidden.bias": {
    "shape": [
      100
    ],
    "dtype": "torch.float32",
    "data": [
      0.0,
      0.0,
      0.0,
      0.0,
      0.0,
      0.0,
      0.0,
      0.0,
      0.0,
      0.0,
      0.0,
      0.0,
      0.0,
      0.0,
      0.0,
      0.0,
      0.0,
      0.0,
      0.0,
      0.0,
      0.0,
      0.0,
      0.0,
      0.0,
      0.0,
      0.0,
      0.0,
      0.0,
      0.0,
      0.0,
      0.0,
      0.0,
      0.0,
      0.0,
      0.0,
      0.0,
      0.0,
      0.0,
      0.0,
      0.0,
      0.0,
      0.0,
      0.0,
      0.0,
      0.0,
      0.0,
      0.0,
      0.0,
      0.0,
      0.0,
      0.0,
      0.0,
      0.0,
      0.0,
      0.0,
      0.0,
      0.0,
      0.0,
      0.0,
      0.0,
      0.0,
      0.0,
      0.0,
      0.0,
      0.0,
      0.0,
      0.0,
      0.0,
      0.0,
      0.0,
      0.0,
      0.0,
      0.0,
      0.0,
      0.0,
      0.0,
      0.0,
      0.0,
      0.0,
      0.0,
      0.0,
      0.0,
      0.0,
      0.0,
      0.0,
      0.0,
      0.0,
      0.0,
      0.0,
      0.0,
      0.0,
      0.0,
      0.0,
      0.0,
      0.0,
      0.0,
      0.0,
      0.0,
      0.0,
      0.0
    ]
  },
  "hidden.weight": {
    "shape": [
      100,
      100
    ],
    "dtype": "torch.float32",
    "data": [
      [
        -0.0055602979846298695,
        -0.013329563662409782,
        0.007714167702943087,
        -0.010328001342713833,
        0.005053541157394648,
        0.0017980275442823768,
        0.009376618079841137,
        0.006369825452566147,
        0.00570025434717536,
        -0.005334667861461639,
        0.002907475456595421,
        -0.0002727071987465024,
        -0.000913194555323571,
        0.017403990030288696,
        0.019756730645895004,
        -0.013987911865115166,
        0.0020299486350268126,
        0.0017966479063034058,
        0.010461083613336086,
        0.02657918818295002,
        -0.007271652575582266,
        0.004421801306307316,
        -0.01537043135613203,
        0.009594311937689781,
        -0.0022546909749507904,
        -0.01745409332215786,
        0.003219258040189743,
        -0.006749717053025961,
        -0.006432667374610901,
        0.010967456735670567,
        0.005229257047176361,
        0.011295522563159466,
        -0.013201702386140823,
        -0.00014724172069691122,
        -0.012340782210230827,
        -0.015569075010716915,
        0.0028983023948967457,
        0.01173106487840414,
        0.009001133032143116,
        0.002290152944624424,
        -0.003842388978227973,
        -0.0065980758517980576,
        0.0005928926984779537,
        0.006942763924598694,
        -0.002431213855743408,
        0.002490826416760683,
        -2.7283229428576306e-05,
        -0.002581508131697774,
        0.017460757866501808,
        -0.008506477810442448,
        -0.0034246742725372314,
        -0.015685483813285828,
        0.010857229121029377,
        0.010034064762294292,
        0.005545647814869881,
        -0.0039008616004139185,
        0.014668373391032219,
        0.001218065619468689,
        0.004783663433045149,
        0.011698399670422077,
        -0.004325214773416519,
        -0.0021765781566500664,
        -0.011600506491959095,
        -0.014965610578656197,
        -0.004991548601537943,
        -0.013127055950462818,
        0.0012848196784034371,
        0.0011568592162802815,
        -0.01580394059419632,
        0.008207663893699646,
        0.003476410172879696,
        -0.009437060914933681,
        0.010954482480883598,
        -0.01073394250124693,
        0.007417675107717514,
        0.011483315378427505,
        0.011104254052042961,
        0.0025913745630532503,
        -0.012568225152790546,
        -0.0033057192340493202,
        0.0005140810972079635,
        -0.0020763101056218147,
        -0.015844600275158882,
        0.007180645130574703,
        0.009113596752285957,
        0.003692515892907977,
        -0.009844341315329075,
        -0.01439717411994934,
        0.009558146819472313,
        -0.004577622748911381,
        -0.001727604423649609,
        0.012729691341519356,
        0.01840144768357277,
        -0.0028986663091927767,
        0.004634182434529066,
        -0.006368646398186684,
        -0.010991936549544334,
        0.011984774842858315,
        0.001235694158822298,
        0.004210510291159153
      ],
      [
        0.013853560201823711,
        0.007035841699689627,
        -0.006738526746630669,
        -0.0019898235332220793,
        0.005438318010419607,
        0.008464005775749683,
        0.005442223511636257,
        0.002395241055637598,
        0.0030717053450644016,
        0.008816750720143318,
        -0.0007237100508064032,
        0.0199598241597414,
        0.0037389248609542847,
        0.002741016447544098,
        -0.001013492583297193,
        0.002128762658685446,
        0.0037734215147793293,
        0.006829249206930399,
        -0.006663661450147629,
        -0.0013732133666053414,
        0.004863501526415348,
        -0.018084639683365822,
        0.004175302106887102,
        -0.011680505238473415,
        -0.0029744552448391914,
        0.019000262022018433,
        0.0036666865926235914,
        -0.009938208386301994,
        -0.002633283380419016,
        -0.007716046180576086,
        0.010160967707633972,
        -0.0059189400635659695,
        -0.010386554524302483,
        0.01659579761326313,
        0.024136129766702652,
        0.003253640839830041,
        -0.003442315384745598,
        0.011082377284765244,
        0.00043132546124979854,
        -0.014542300254106522,
        0.001970666693523526,
        -0.01471265684813261,
        0.000294555356958881,
        0.002485750475898385,
        -0.002760146977379918,
        0.02514689788222313,
        -0.0032531784381717443,
        0.011168714612722397,
        -0.007568069733679295,
        -0.009162588976323605,
        -0.021731572225689888,
        -0.012664941139519215,
        0.004459800198674202,
        -0.005830290261656046,
        0.005191431380808353,
        -0.005293043330311775,
        0.001614412060007453,
        0.0006885268958285451,
        0.017319492995738983,
        -0.011990350671112537,
        -0.006747974548488855,
        -0.011470556259155273,
        0.0005206327186897397,
        0.014255670830607414,
        0.006479346193373203,
        -0.006776624359190464,
        0.01726045273244381,
        -0.01383272185921669,
        0.0007183089619502425,
        0.014177770353853703,
        -0.013428562320768833,
        0.013790068216621876,
        0.005562345031648874,
        -0.0013226184528321028,
        -0.0009056385606527328,
        -0.0156841017305851,
        0.005832046736031771,
        -0.002961190650239587,
        -0.010594092309474945,
        0.008688298985362053,
        -0.018574418500065804,
        -0.015204265713691711,
        0.004332443233579397,
        0.0011903856648132205,
        -0.0032121113035827875,
        0.004438295494765043,
        0.00913709681481123,
        0.0011898130178451538,
        0.006636681966483593,
        0.021785374730825424,
        0.012672732584178448,
        0.015082391910254955,
        -0.013282079249620438,
        0.008730822242796421,
        0.01375851035118103,
        0.004628031514585018,
        -0.002835627179592848,
        0.013936338946223259,
        0.010393140837550163,
        0.007321226876229048
      ],
      [
        -0.002309260657057166,
        0.023235227912664413,
        -0.006502315867692232,
        0.0074742501601576805,
        -0.009875860065221786,
        2.10127436730545e-05,
        -0.004775497131049633,
        0.003922610078006983,
        0.0022914556320756674,
        0.010454314760863781,
        0.013286207802593708,
        -0.007733961567282677,
        0.003859477350488305,
        0.008353546261787415,
        0.003499151673167944,
        -0.00357053242623806,
        0.010371861979365349,
        -0.02125837840139866,
        0.002354745753109455,
        -0.009751906618475914,
        -0.00031394470715895295,
        0.0013768954668194056,
        -0.011566981673240662,
        0.00706295995041728,
        -0.003518677083775401,
        -0.0005880023818463087,
        0.00794980302453041,
        -0.007210517302155495,
        0.010777122341096401,
        0.015807203948497772,
        -0.0030184080824255943,
        0.0048504117876291275,
        0.013798429630696774,
        0.027912693098187447,
        -0.0010957251070067286,
        0.0014094699872657657,
        -0.008672469295561314,
        0.010060067288577557,
        -0.0038164625875651836,
        0.012158944271504879,
        -0.003864785423502326,
        -0.0030551075469702482,
        0.010320090688765049,
        0.004619895480573177,
        0.0017855657497420907,
        0.005862932652235031,
        0.012249852530658245,
        0.008824724704027176,
        0.0028285172302275896,
        0.017837869003415108,
        -0.008218204602599144,
        -0.014509194530546665,
        0.002263926202431321,
        -0.014414357952773571,
        0.012391926720738411,
        -0.00684528099372983,
        0.002296529011800885,
        -0.004489887040108442,
        0.0032270755618810654,
        -0.007537626661360264,
        -0.006527845282107592,
        -0.0024826941080391407,
        -0.0330749973654747,
        0.0038861974608153105,
        -0.027959726750850677,
        -0.000891760631930083,
        0.01056116633117199,
        -0.0010638219537213445,
        0.007100552320480347,
        0.005995531100779772,
        -0.018962129950523376,
        0.005141960922628641,
        -0.001965960720553994,
        -0.026734406128525734,
        -0.0010942916851490736,
        0.011829761788249016,
        -0.015915898606181145,
        -0.0029220038559287786,
        0.0064369747415184975,
        -0.002975358394905925,
        0.008643890731036663,
        -0.008117240853607655,
        0.0156453475356102,
        0.0011146871838718653,
        -0.004322995897382498,
        0.00263630086556077,
        0.007556620053946972,
        -0.012925641611218452,
        -0.011565937660634518,
        0.005698926746845245,
        -0.01474868506193161,
        -0.0013594154734164476,
        0.012777202762663364,
        0.008719398640096188,
        -0.003804441075772047,
        -0.0043153162114322186,
        -0.013405833393335342,
        0.01393576804548502,
        0.0019266196759417653,
        -0.011850711889564991
      ],
      [
        -0.0007168353185988963,
        -0.01086767390370369,
        -0.0026376203168183565,
        0.01504651177674532,
        0.002366993110626936,
        0.0030635285656899214,
        0.006065842229872942,
        0.01082192175090313,
        -0.0007087414269335568,
        0.007589817047119141,
        -0.0029273321852087975,
        -0.023304037749767303,
        -0.012944523245096207,
        -0.0017538027605041862,
        0.0032341538462787867,
        0.010057302191853523,
        -0.01901024952530861,
        0.0024817881640046835,
        -0.004163397941738367,
        0.01005500741302967,
        -0.016876766458153725,
        -0.0008934614015743136,
        0.0014573953812941909,
        -0.015506234019994736,
        0.004489544313400984,
        -0.0027886389289051294,
        -0.011930924840271473,
        0.00891675241291523,
        0.004708117339760065,
        0.003977620508521795,
        0.006720785517245531,
        0.0054160552099347115,
        -0.004487563855946064,
        -0.001964560942724347,
        -0.01474883034825325,
        0.007175159174948931,
        -0.011445523239672184,
        -0.0021120691671967506,
        0.005189967807382345,
        0.008455256000161171,
        -0.019841507077217102,
        -0.005821999628096819,
        0.010243847034871578,
        0.020088734105229378,
        -0.010968196205794811,
        0.005489090457558632,
        0.005828434135764837,
        0.007492531556636095,
        0.008425593376159668,
        -0.002030200557783246,
        -0.014065560884773731,
        0.011121248826384544,
        0.0009027720079757273,
        0.000801284157205373,
        0.0010915533639490604,
        0.006642201915383339,
        0.00505854282528162,
        0.02293473109602928,
        0.010052384808659554,
        -0.02940278872847557,
        -0.01357214991003275,
        -0.005736052989959717,
        -0.0014154049567878246,
        -0.00013818366278428584,
        0.007029289845377207,
        -0.0013848994858562946,
        0.006669207010418177,
        -0.006451142951846123,
        -0.005351163446903229,
        -0.0008420892409048975,
        -0.002332782605662942,
        0.006772791501134634,
        -0.003126158146187663,
        -0.011277391575276852,
        0.007053056266158819,
        0.005323826335370541,
        0.006323852576315403,
        -0.0023473119363188744,
        0.006075039505958557,
        0.019411062821745872,
        0.00038149181636981666,
        -0.013031123206019402,
        0.00047249672934412956,
        -0.0194114837795496,
        -0.00016847241204231977,
        -0.018629439175128937,
        -0.006781781557947397,
        6.643529195571318e-05,
        0.011521007865667343,
        -0.008712002076208591,
        -0.021889422088861465,
        0.008251882158219814,
        -0.004675380885601044,
        0.016389548778533936,
        0.005505725741386414,
        0.0008449583547189832,
        -0.00333972810767591,
        0.0038543730042874813,
        0.0006848816992715001,
        0.004645864944905043
      ],
      [
        0.0010226911399513483,
        0.00626384699717164,
        -0.00708613358438015,
        -0.018633438274264336,
        -0.0022040109615772963,
        0.004541385918855667,
        -0.011636415496468544,
        -0.003706693649291992,
        0.0007749745273031294,
        0.005103673320263624,
        -0.000793362851254642,
        -0.003505588509142399,
        0.012519000098109245,
        -0.010451884008944035,
        -0.006246293429285288,
        0.00602895300835371,
        -0.010784531943500042,
        -0.0024657556787133217,
        0.009612894617021084,
        0.0037692724727094173,
        0.00618751859292388,
        -0.0029372756835073233,
        -0.0005074299988336861,
        -0.0009412377839908004,
        -0.015027244575321674,
        -0.009044604375958443,
        -0.006254193838685751,
        -0.028682412579655647,
        0.0033990093506872654,
        -0.010407286696135998,
        -0.00943078938871622,
        0.006619189865887165,
        0.003240434220060706,
        0.016636498272418976,
        -0.0014178159181028605,
        -0.003104542614892125,
        -0.007863818667829037,
        -0.0022154890466481447,
        -0.012521286495029926,
        0.01596119999885559,
        0.010673042386770248,
        0.000992989051155746,
        -0.003110138699412346,
        -0.007392137311398983,
        0.007757655344903469,
        -0.01851416938006878,
        0.01500627025961876,
        5.5561846238560975e-05,
        -0.004906834103167057,
        -0.005007103551179171,
        -0.018047237768769264,
        -0.021992173045873642,
        0.004926734138280153,
        0.0005040377727709711,
        0.00922688003629446,
        0.013231324963271618,
        -0.006500655319541693,
        0.0228292103856802,
        -1.4850533261778764e-05,
        0.005658296402543783,
        0.00929045770317316,
        -0.023262852802872658,
        -0.0015286569250747561,
        -0.0039221602492034435,
        0.00015240409993566573,
        0.005431145429611206,
        -0.0073308879509568214,
        -0.003675800748169422,
        -0.003229885594919324,
        0.0011721077607944608,
        -0.0012771766632795334,
        -0.007036027032881975,
        0.02091146446764469,
        -0.010897519066929817,
        -0.013909673318266869,
        -0.010542355477809906,
        0.00764269195497036,
        -0.0038286950439214706,
        0.00430161040276289,
        0.003660191548988223,
        0.0047248234041035175,
        -0.010835030116140842,
        0.008347460068762302,
        -0.008149120956659317,
        -0.007507530972361565,
        -0.0016198735684156418,
        0.00405988609418273,
        -0.01959485188126564,
        0.007075808942317963,
        0.00533061008900404,
        -0.009517566300928593,
        -0.0032927347347140312,
        -0.00048771739238873124,
        -0.013950667344033718,
        0.000115337832539808,
        -0.002615090925246477,
        0.002780256560072303,
        0.0004973749164491892,
        -0.012902440503239632,
        -0.015066610649228096
      ],
      [
        -0.003441094420850277,
        -0.011527219787240028,
        0.003121426561847329,
        0.006053116172552109,
        -0.015923060476779938,
        0.004561088979244232,
        0.0018665380775928497,
        -0.003766169073060155,
        0.0003861321019940078,
        0.016782216727733612,
        -0.010538505390286446,
        0.003215654054656625,
        -0.014186648651957512,
        0.018119942396879196,
        0.004734622780233622,
        -0.0021609091199934483,
        -0.002856617793440819,
        0.01271983701735735,
        -0.00713541591539979,
        0.0017059005331248045,
        -0.0015047261258587241,
        0.006200902163982391,
        -0.007850642316043377,
        -0.00915287435054779,
        -0.006422752048820257,
        -0.002872113836929202,
        -0.0015601409832015634,
        0.009003106504678726,
        0.022754397243261337,
        0.018237793818116188,
        -0.00840466096997261,
        0.012183775193989277,
        -0.005013615824282169,
        0.0036124128382653,
        0.008047163486480713,
        -0.010325433686375618,
        0.015860503539443016,
        0.012736614793539047,
        0.00767784146592021,
        -0.026582876220345497,
        -0.01047702319920063,
        0.0020536554511636496,
        0.0026841030921787024,
        -0.008945407345890999,
        0.01117624994367361,
        0.010800234042108059,
        -0.0065701911225914955,
        -0.0082081975415349,
        -0.010508617386221886,
        -0.001705856411717832,
        -0.009872784838080406,
        0.0018209184054285288,
        0.0015033192466944456,
        -0.003407197305932641,
        -0.012044270522892475,
        -0.011349913664162159,
        0.015113180503249168,
        -0.00510507682338357,
        -0.011781667359173298,
        0.01034991629421711,
        0.002554005943238735,
        -0.0005432511679828167,
        0.00219517364166677,
        0.008981672115623951,
        0.00702099921181798,
        0.022606326267123222,
        -0.01586223393678665,
        -0.013283060863614082,
        0.009957704693078995,
        -0.0021450682543218136,
        0.01537350844591856,
        0.0009821481071412563,
        -0.0024134416598826647,
        -0.0014269523089751601,
        0.006966110784560442,
        -0.0005056679947301745,
        0.007482902146875858,
        -0.004269234370440245,
        -0.007128593977540731,
        -0.012406927533447742,
        -0.003233980154618621,
        -0.004505468532443047,
        -0.004327363800257444,
        0.002066578483209014,
        0.0012753908522427082,
        0.009082191623747349,
        -0.015040372498333454,
        -0.009760040789842606,
        -0.0012875344837084413,
        0.005969393067061901,
        0.01012806873768568,
        0.015309448353946209,
        0.019063705578446388,
        0.00792634766548872,
        -0.006827810779213905,
        0.0008622070890851319,
        -0.017094258219003677,
        0.0031009947415441275,
        0.005755661986768246,
        0.009954020380973816
      ],
      [
        -0.006347517017275095,
        -0.007013395428657532,
        -0.017758609727025032,
        0.0020287390798330307,
        -0.0023587432224303484,
        -0.002909283619374037,
        0.016649579629302025,
        -0.015047050081193447,
        -0.001357133500277996,
        0.002310819923877716,
        3.225904583814554e-05,
        -0.0014485139399766922,
        -0.003765870351344347,
        -0.002337218029424548,
        -0.0034091344568878412,
        0.004757891409099102,
        -0.0007325052283704281,
        -0.005413385108113289,
        0.007915578782558441,
        0.0026829454582184553,
        0.003983867354691029,
        0.02201090008020401,
        -0.009329933673143387,
        -0.009692281484603882,
        -0.005076729692518711,
        -0.011209877207875252,
        0.008342821151018143,
        0.00039788646972738206,
        -0.009623170830309391,
        0.005888696294277906,
        -0.0054214331321418285,
        0.003272507106885314,
        -0.012973371893167496,
        0.0018106757197529078,
        -0.0008652049582451582,
        0.001853413414210081,
        0.016251128166913986,
        0.0145557951182127,
        -0.011660820804536343,
        0.011705378070473671,
        0.005010056775063276,
        -0.016659023240208626,
        -0.006342243868857622,
        -0.00046055432176217437,
        -0.009460932575166225,
        0.011125833727419376,
        0.00846344418823719,
        0.006628600414842367,
        0.005485313944518566,
        -0.016723720356822014,
        0.00274600344710052,
        0.004717833362519741,
        -0.0022917804308235645,
        -0.011557236313819885,
        -0.008575341664254665,
        -0.003277968382462859,
        -0.000462311931187287,
        0.0001586071157362312,
        -0.004418555181473494,
        -0.002382243750616908,
        -0.0043717133812606335,
        0.014879921451210976,
        0.001446942100301385,
        0.008519219234585762,
        -0.002609740477055311,
        -0.0020447089336812496,
        -0.020890140905976295,
        -0.004103985149413347,
        -0.011492105200886726,
        -0.004439165350049734,
        0.0024715662002563477,
        -0.0033605836797505617,
        0.0014854691689833999,
        0.01438218168914318,
        0.015116710215806961,
        0.01182603184133768,
        0.010214232839643955,
        0.004944908898323774,
        0.00542149692773819,
        0.015567179769277573,
        0.0045999810099601746,
        -0.009391099214553833,
        0.0028346246108412743,
        0.0233914814889431,
        0.0049653565511107445,
        0.0024751864839345217,
        -0.0010869994293898344,
        0.00017338606994599104,
        -0.005279953591525555,
        -0.012573142535984516,
        0.005714776925742626,
        -0.007360758725553751,
        -0.01141303963959217,
        0.004362751264125109,
        -0.000508806377183646,
        0.006003128364682198,
        0.0017564855515956879,
        0.0036156156565994024,
        0.006235668435692787,
        0.004312462639063597
      ],
      [
        -0.024144943803548813,
        -0.0012141925981268287,
        0.007232272531837225,
        -0.013376742601394653,
        -0.006116452626883984,
        0.0051160878501832485,
        -0.0030924880411475897,
        0.02120564505457878,
        -0.007393174804747105,
        0.010517186485230923,
        -0.012113068252801895,
        0.020432455465197563,
        0.005613603629171848,
        0.0026775612495839596,
        0.007975094951689243,
        -0.0038735780399292707,
        0.016743822023272514,
        -0.00596966128796339,
        0.010797207243740559,
        0.005156757775694132,
        0.009475860744714737,
        0.003352726111188531,
        0.00640085618942976,
        -0.0013934901216998696,
        0.003931035753339529,
        -0.0023204872850328684,
        -0.016703756526112556,
        -0.0055944547057151794,
        -0.007252500392496586,
        0.004941477440297604,
        0.00047147824079729617,
        -0.012439316138625145,
        0.0031687745358794928,
        0.0021801625844091177,
        -0.010416878387331963,
        -0.01388832088559866,
        0.006601862609386444,
        -0.005912740249186754,
        0.006554855965077877,
        -0.01412828266620636,
        0.009194670245051384,
        0.01782000996172428,
        -0.006715903524309397,
        0.002004032488912344,
        0.021690670400857925,
        0.006254294421523809,
        -0.004888686817139387,
        -0.00012502771278377622,
        -0.006756016984581947,
        0.022634711116552353,
        0.015139356255531311,
        -0.007531069219112396,
        -0.001070998958311975,
        -0.006435764953494072,
        0.006953022908419371,
        0.008191998116672039,
        -0.004274863284081221,
        0.0019117798656225204,
        -0.004536930005997419,
        0.024760887026786804,
        0.004852781537920237,
        -0.019065281376242638,
        0.0030270682182163,
        -0.005754405166953802,
        0.005607080180197954,
        -0.01905331388115883,
        0.0006840415298938751,
        -0.0077612027525901794,
        0.015383201651275158,
        0.00882710237056017,
        -0.00748190563172102,
        0.0037824809551239014,
        -0.002426079474389553,
        -0.0015806190203875303,
        0.00847482681274414,
        -0.01762206479907036,
        0.02562217228114605,
        0.0033913850784301758,
        -0.009135091677308083,
        0.002678429940715432,
        -0.023385297507047653,
        -0.015831299126148224,
        0.006843352224677801,
        -0.016366273164749146,
        -0.004331954289227724,
        -0.0004998016520403326,
        -0.014727339148521423,
        0.00013763578317593783,
        -0.010741224512457848,
        -0.0023808139376342297,
        0.010247464291751385,
        0.007762843277305365,
        0.0047179958783090115,
        -0.012329191900789738,
        -0.001767626847140491,
        -0.020044313743710518,
        -0.003468337468802929,
        0.016839366406202316,
        0.006764284335076809,
        0.009035944007337093
      ],
      [
        0.0029877678025513887,
        -0.0038140984252095222,
        0.0037868102081120014,
        0.004334412515163422,
        0.008832576684653759,
        0.004622919950634241,
        0.005214059259742498,
        -0.014825697988271713,
        0.016094863414764404,
        -0.0026258425787091255,
        0.002743711695075035,
        0.005574720446020365,
        0.014320584945380688,
        0.02141101285815239,
        0.005146000999957323,
        0.007930874824523926,
        0.004457750357687473,
        0.009642815217375755,
        0.012068334966897964,
        -0.002900723833590746,
        -0.007946412079036236,
        -0.004136602859944105,
        0.01738167554140091,
        -0.008872749283909798,
        0.0009531711111776531,
        -0.0024897041730582714,
        0.0011548252077773213,
        -0.005616751965135336,
        -0.0019201500108465552,
        0.008470726199448109,
        -0.0018051565857604146,
        -0.004758966621011496,
        0.006327853072434664,
        0.005615203641355038,
        -0.011415841057896614,
        -0.012846088968217373,
        -8.908660674933344e-05,
        -0.009280644357204437,
        0.008296478539705276,
        -0.0013322492595762014,
        -0.00392318656668067,
        0.010419811122119427,
        -0.0032946693245321512,
        0.01868056133389473,
        0.009074172005057335,
        0.0019958107732236385,
        0.004490243270993233,
        -0.0016872568521648645,
        -0.0016281394055113196,
        -0.0005053579225204885,
        0.002693298738449812,
        -0.013357424177229404,
        -0.009706600569188595,
        -0.0026519903913140297,
        0.005172270815819502,
        0.0010409958194941282,
        -0.005963694304227829,
        -0.00358784687705338,
        -0.010652939788997173,
        -0.0025967732071876526,
        0.0026849769055843353,
        0.00024172784469556063,
        -0.0064043765887618065,
        0.005450485274195671,
        0.005404679570347071,
        -0.0019495683955028653,
        -0.0014838648494333029,
        0.00617664959281683,
        -0.006408322136849165,
        0.005606390070170164,
        -0.012547063641250134,
        -0.0023277406580746174,
        0.004962339997291565,
        -0.019663795828819275,
        -0.003450320102274418,
        0.004685384687036276,
        -0.004304384347051382,
        0.00035308426595292985,
        -0.004291098099201918,
        0.01787673868238926,
        -0.00037345182499848306,
        -0.0054305545054376125,
        -0.015375589951872826,
        -0.004090184345841408,
        0.01057804562151432,
        0.0075401668436825275,
        0.019133729860186577,
        -0.006848163902759552,
        0.008948095142841339,
        0.009084471501410007,
        0.0015539146261289716,
        0.005789482966065407,
        0.015317543409764767,
        0.006522076670080423,
        -0.014961060136556625,
        0.005445067770779133,
        9.70745095401071e-05,
        0.01064472459256649,
        0.0073966532945632935,
        -0.011088671162724495
      ],
      [
        -0.005112186539918184,
        0.01621651090681553,
        -0.00787086971104145,
        0.005203074775636196,
        0.009118618443608284,
        -0.00020588810730259866,
        -0.006234097294509411,
        0.007680622395128012,
        0.011633883230388165,
        -0.010364852845668793,
        -0.008453051559627056,
        -0.004623308777809143,
        -0.0018710438162088394,
        0.0024382907431572676,
        -0.007820801809430122,
        -0.006658931262791157,
        0.0029895352199673653,
        -0.008436772972345352,
        0.0018389944452792406,
        0.011861772276461124,
        -0.014215318486094475,
        0.017678678035736084,
        -0.011782891117036343,
        0.002236029366031289,
        0.008639451116323471,
        0.0017832523444667459,
        0.0003472175740171224,
        0.0029733299743384123,
        -0.0013642654521390796,
        -0.00864441879093647,
        0.008205922320485115,
        -0.0017383055528625846,
        -0.008810347877442837,
        -0.01427571102976799,
        -0.012418371625244617,
        -0.005212643649429083,
        -0.007384856231510639,
        0.004938929807394743,
        -0.002457232680171728,
        0.01841757446527481,
        0.01061308104544878,
        0.0036530219949781895,
        0.002321095671504736,
        -0.004825087729841471,
        0.01461996603757143,
        0.010230319574475288,
        0.0028882413171231747,
        0.002421440789476037,
        -0.013879271224141121,
        0.013159643858671188,
        0.007846665568649769,
        -0.0028320576529949903,
        -0.005010766908526421,
        0.004837118089199066,
        -0.0031575914472341537,
        2.4342396500287578e-05,
        0.0040823654271662235,
        -0.00014333080616779625,
        -0.02423030324280262,
        -0.002841383684426546,
        -0.014173735864460468,
        0.002581325825303793,
        0.021232793107628822,
        -0.008275222033262253,
        -0.006837272085249424,
        0.011305195279419422,
        -0.019712859764695168,
        0.005225962959229946,
        -0.01510611828416586,
        0.017504490911960602,
        0.00515923323109746,
        -0.0029874269384890795,
        0.021500594913959503,
        0.024071363732218742,
        0.009489006362855434,
        0.007925535552203655,
        0.01215569581836462,
        -0.004231531172990799,
        -0.008666680194437504,
        0.003583812853321433,
        0.0077848718501627445,
        0.011343521066009998,
        0.01124207116663456,
        -0.026808807626366615,
        -0.021257059648633003,
        0.001044608885422349,
        -0.0051522329449653625,
        -0.024889618158340454,
        -0.005799660459160805,
        -0.002307646907866001,
        0.008953371085226536,
        0.004341049585491419,
        0.008845703676342964,
        -0.008052872493863106,
        -0.00662811566144228,
        -0.005487888120114803,
        -0.01907399296760559,
        -0.02074427530169487,
        -0.019653579220175743,
        -0.006184132769703865
      ],
      [
        0.011481523513793945,
        0.01441256608814001,
        -0.018546810373663902,
        0.00724952993914485,
        -0.013838672079145908,
        -0.003901531919836998,
        -0.004971647635102272,
        -0.02112800069153309,
        0.00017150341591332108,
        -0.0026899403892457485,
        0.0030240400228649378,
        -0.0055109187960624695,
        0.0031763070728629827,
        -0.0014463952975347638,
        0.018680822104215622,
        -0.020794836804270744,
        0.00426308810710907,
        0.007534084375947714,
        0.011526985093951225,
        0.010547013953328133,
        0.009888852015137672,
        -0.018443290144205093,
        0.003698758315294981,
        0.0006648675189353526,
        -0.009085235185921192,
        -0.003026375314220786,
        0.006534225773066282,
        -0.003689051838591695,
        -0.001785767381079495,
        0.004213226493448019,
        0.01067617628723383,
        -0.0051107946783304214,
        -0.009351409040391445,
        0.006277189590036869,
        0.001879484043456614,
        -0.011853043921291828,
        -0.004071527160704136,
        -0.006371403578668833,
        -0.0018491816008463502,
        0.008568580262362957,
        0.015127847902476788,
        0.0013404368655756116,
        -0.01525933388620615,
        -0.005021790973842144,
        0.0198542308062315,
        -0.0051296185702085495,
        0.0141275804489851,
        -0.01104875560849905,
        -0.014932136051356792,
        0.0009036767878569663,
        -0.0008163956226781011,
        -0.001818592194467783,
        0.010560722090303898,
        -0.007142312359064817,
        -0.0032559679821133614,
        -0.020232634618878365,
        -0.007528258021920919,
        0.012752208858728409,
        -0.017854847013950348,
        0.011789093725383282,
        -0.0024961461313068867,
        0.012140822596848011,
        -0.0033178196754306555,
        -0.0019506860990077257,
        -0.0061115059070289135,
        -0.01948375254869461,
        0.013953499495983124,
        0.009110614657402039,
        0.00942978635430336,
        -0.006472120527178049,
        -0.009202912449836731,
        -0.0035563085693866014,
        -0.0023750511463731527,
        0.003830313915386796,
        -0.001616121968254447,
        0.010982770472764969,
        -0.0026593187358230352,
        0.003222246654331684,
        0.01901497319340706,
        0.005358587484806776,
        -0.025682389736175537,
        0.010224337689578533,
        0.002012654673308134,
        -0.002993053989484906,
        -0.0042783538810908794,
        0.005244765896350145,
        -0.006081738509237766,
        0.01767786405980587,
        0.009084134362637997,
        0.003285994753241539,
        0.005318440031260252,
        0.0025674565695226192,
        -0.008131706155836582,
        0.021135777235031128,
        0.0012114810524508357,
        -0.004296503961086273,
        0.0018841875717043877,
        -0.0009295750060118735,
        0.004419307690113783,
        -0.0032236536499112844
      ],
      [
        0.007537474390119314,
        -0.006752012297511101,
        0.0022131875157356262,
        0.013978814706206322,
        0.007008672226220369,
        0.008638457395136356,
        0.005134985316544771,
        -0.0007784032495692372,
        0.004197779111564159,
        0.006073460448533297,
        0.008636804297566414,
        0.012219476513564587,
        -0.003242659382522106,
        -0.008265390060842037,
        -0.0054854038171470165,
        -0.007448521908372641,
        -0.013106564059853554,
        -0.000944047758821398,
        -0.005432133562862873,
        0.0013094466412439942,
        0.013551848009228706,
        -0.004518540110439062,
        0.001569836400449276,
        0.0023814248852431774,
        0.015120336785912514,
        -0.0034458127338439226,
        -0.009150778874754906,
        0.0065323542803525925,
        -0.0016887786332517862,
        0.010335318744182587,
        0.0019154420588165522,
        0.002682879101485014,
        0.0006878147250972688,
        0.01980876363813877,
        0.00728369178250432,
        -0.0033776701893657446,
        0.00531326700001955,
        -0.01582999899983406,
        -5.20929170306772e-05,
        0.0039931414648890495,
        -0.007871982641518116,
        0.0016458616591989994,
        -0.007315696682780981,
        0.006419271230697632,
        0.014578860253095627,
        0.004528500139713287,
        0.0104005616158247,
        0.010790698230266571,
        -0.01367097906768322,
        -0.005006352439522743,
        -0.0038090290036052465,
        -0.0018221939681097865,
        0.0070841070264577866,
        -0.0022551005240529776,
        -0.01466873288154602,
        0.004184714052826166,
        0.0020558293908834457,
        -0.018563132733106613,
        0.008883276022970676,
        -0.001702070701867342,
        -0.01191448699682951,
        -0.007611364591866732,
        -0.00025365062174387276,
        0.011412561871111393,
        -0.0022453637793660164,
        0.0006753539200872183,
        -0.010361572727560997,
        0.018898364156484604,
        -0.010777776129543781,
        -0.01195797510445118,
        0.002316938014701009,
        0.0015609277179464698,
        0.018320417031645775,
        0.0036905775777995586,
        0.00570066599175334,
        -0.01805710606276989,
        -0.003193547250702977,
        -0.0025196396745741367,
        0.0022273652721196413,
        -0.01091061346232891,
        0.009361324831843376,
        -0.028686605393886566,
        -0.009276394732296467,
        -0.006148424465209246,
        0.004521045833826065,
        0.003930193837732077,
        -0.001722063054330647,
        -0.010264506563544273,
        -0.012186769396066666,
        -0.0003233647730667144,
        -0.007107763085514307,
        0.005261055193841457,
        -0.007501841057091951,
        -0.004356880206614733,
        0.0011355173774063587,
        0.004293524660170078,
        -0.011581136845052242,
        -0.003007564228028059,
        0.0005380648653954268,
        0.003813165705651045
      ],
      [
        -0.0019132120069116354,
        -0.000967166677583009,
        -0.013478940352797508,
        0.0026265191845595837,
        -0.004908874165266752,
        -0.01154661737382412,
        0.005117370747029781,
        0.0019286088645458221,
        0.0006967626395635307,
        -0.014120591804385185,
        0.005946147721260786,
        -0.0033254518639296293,
        -0.0034223683178424835,
        0.018959995359182358,
        -0.010052381083369255,
        0.0142063545063138,
        0.006599739659577608,
        -0.009862257167696953,
        -0.006129751447588205,
        -0.008221964351832867,
        0.005510007031261921,
        -0.0019165391568094492,
        -0.0019848032388836145,
        0.02692251466214657,
        0.01531453337520361,
        0.014354662969708443,
        0.00067092664539814,
        -0.007573547773063183,
        -0.007887400686740875,
        0.004762092139571905,
        0.0002304847293999046,
        -0.00813359022140503,
        -0.008924920111894608,
        -0.01218338031321764,
        -0.0013032996794208884,
        -0.0042682914063334465,
        0.007297175470739603,
        0.027598746120929718,
        -0.02123893052339554,
        0.0051408736035227776,
        -0.0029829167760908604,
        0.0017449238803237677,
        0.011893882416188717,
        0.004921391606330872,
        -0.007979488000273705,
        -0.0015325617277994752,
        -0.0034271152690052986,
        -0.015180886723101139,
        -0.0011857018107548356,
        -0.008135165087878704,
        0.01470052171498537,
        0.011442906223237514,
        -0.011401928029954433,
        -0.012500190176069736,
        -0.014453579671680927,
        0.004587771836668253,
        -0.0023240060545504093,
        0.014760670252144337,
        0.008606618270277977,
        -0.0034950359258800745,
        0.012523693963885307,
        -0.018698252737522125,
        -0.004363019485026598,
        -0.013748493045568466,
        0.00990082323551178,
        -0.008454886265099049,
        -0.012690514326095581,
        0.012579207308590412,
        0.005067998077720404,
        -0.0037223093677312136,
        -0.010315845720469952,
        0.004184233024716377,
        -0.011260434985160828,
        0.01462311577051878,
        -0.00711122015491128,
        0.010457145981490612,
        -0.01726437546312809,
        -0.006463006604462862,
        -0.007183371111750603,
        -0.002372950315475464,
        -0.012045422568917274,
        0.005210627801716328,
        -0.0017339549958705902,
        0.003773799166083336,
        -0.018181204795837402,
        0.01503180991858244,
        -0.010867518372833729,
        -0.010595581494271755,
        -0.0012139517348259687,
        0.007067976985126734,
        0.010396767407655716,
        -0.008983835577964783,
        -0.02656838297843933,
        0.015524985268712044,
        0.01904478296637535,
        -0.006144749000668526,
        -0.0030165112111717463,
        -0.003196172881871462,
        -0.006217334885150194,
        0.0042069884948432446
      ],
      [
        -0.01713455840945244,
        0.00643894961103797,
        0.0002585923357401043,
        0.0012939977459609509,
        -0.005446364171802998,
        0.026558365672826767,
        0.00750821502879262,
        -0.00882783904671669,
        -0.013494488783180714,
        0.006896638777107,
        0.011993861757218838,
        -0.002347208559513092,
        0.016597013920545578,
        -0.0005193785182200372,
        -0.0058409422636032104,
        0.003454352030530572,
        0.0003018462157342583,
        0.001575018628500402,
        -0.0034104648511856794,
        0.010282793082296848,
        -0.006498441565781832,
        -0.0023041418753564358,
        0.021077001467347145,
        -0.006717045325785875,
        0.0061894794926047325,
        0.0016460987972095609,
        0.002121519763022661,
        -0.006380077917128801,
        -0.011823893524706364,
        -0.0056208097375929356,
        0.0024542531464248896,
        -0.011822274886071682,
        -0.0063695344142615795,
        -0.0005875265342183411,
        -0.0075480155646800995,
        -0.005688166711479425,
        -0.013808848336338997,
        -0.004536152817308903,
        0.004663974046707153,
        0.007648597937077284,
        -0.008270764723420143,
        -0.003903341479599476,
        0.009165048599243164,
        -0.0015416772803291678,
        -0.010295690037310123,
        -0.00880268681794405,
        0.01851808838546276,
        -0.01761706732213497,
        -0.0052831885404884815,
        -0.0012349309399724007,
        -0.010160735808312893,
        0.006537343841046095,
        -0.011989048682153225,
        -0.0049452451057732105,
        0.002674099523574114,
        0.008620459586381912,
        -0.012485106475651264,
        0.015829987823963165,
        -0.013828201219439507,
        -0.006052096374332905,
        -0.008213206194341183,
        0.026912540197372437,
        0.0008981178980320692,
        0.002107987878844142,
        0.013993446715176105,
        -0.004581882152706385,
        -0.009810726158320904,
        0.0022267326712608337,
        -0.009151124395430088,
        -0.0012208169791847467,
        -0.01628766767680645,
        0.0026554299984127283,
        0.015459342859685421,
        -0.010305461473762989,
        0.007213076110929251,
        -0.002999785589054227,
        -0.01118120364844799,
        -0.005720245651900768,
        -0.012674576602876186,
        -0.0074920812621712685,
        0.024246403947472572,
        -0.005113581195473671,
        0.007001877762377262,
        0.008751296438276768,
        0.003396125277504325,
        -0.001672400743700564,
        0.0004839300236199051,
        0.0012285547563806176,
        -0.015629000961780548,
        -0.006867500953376293,
        0.007610970176756382,
        -0.0062706987373530865,
        0.0007954458124004304,
        0.007920227013528347,
        -6.002679219818674e-05,
        -0.016205891966819763,
        -0.003149128518998623,
        0.0039836871437728405,
        -0.0012866525212302804,
        -0.00638869171962142
      ],
      [
        0.003472941229119897,
        -0.0053805396892130375,
        -0.005598426330834627,
        -0.0086350217461586,
        6.121843398432247e-06,
        0.014745471999049187,
        0.0022334966342896223,
        0.017158035188913345,
        0.0082003865391016,
        0.009498372673988342,
        -0.014790134504437447,
        -0.007231243886053562,
        0.01036059856414795,
        -0.006701364181935787,
        0.006620473228394985,
        -0.0025174205657094717,
        -0.01743977889418602,
        0.003957496490329504,
        -0.0045801750384271145,
        -0.007800575345754623,
        0.004039723891764879,
        -0.004154214635491371,
        0.00018317125795874745,
        0.0003582188510335982,
        0.022896938025951385,
        0.0032316562719643116,
        -0.009632891044020653,
        0.013431213796138763,
        -0.005728696472942829,
        0.004996425937861204,
        -0.002744574099779129,
        0.020234601572155952,
        -0.0043220678344368935,
        -0.006959017366170883,
        -0.002532592974603176,
        0.000558948318939656,
        0.011690603569149971,
        -0.014330755919218063,
        0.01007845252752304,
        0.0026922004763036966,
        -0.002815344836562872,
        -0.003569340566173196,
        0.0003804075240623206,
        0.002314084442332387,
        -0.012222673743963242,
        0.01807674579322338,
        -0.0164995975792408,
        0.0024507229682058096,
        -0.001878916285932064,
        0.017905695363879204,
        -0.012110639363527298,
        -0.0041966745629906654,
        0.00625837966799736,
        0.011180424131453037,
        0.008399516344070435,
        -0.012927426025271416,
        0.014846902340650558,
        0.0009816125966608524,
        0.02675921842455864,
        0.0018471624935045838,
        0.001342977862805128,
        0.00672545051202178,
        0.011425767093896866,
        0.007595521863549948,
        0.005791909527033567,
        -0.0007051897700875998,
        -0.007716037333011627,
        -0.0007795538404025137,
        0.004339134320616722,
        -0.012580211274325848,
        -0.007443058770149946,
        -0.003223585430532694,
        -0.013989402912557125,
        0.00900349486619234,
        0.026564378291368484,
        -7.553304021712393e-05,
        -0.023547116667032242,
        0.01523207500576973,
        0.002451737876981497,
        0.009901066310703754,
        0.0002076518867397681,
        0.003967927768826485,
        -0.0036683380603790283,
        0.005420166067779064,
        -0.02513933554291725,
        -0.00550810806453228,
        0.005601017270237207,
        0.010235309600830078,
        -0.012812615372240543,
        0.008173484355211258,
        -0.004558504559099674,
        0.002260497771203518,
        0.012121275067329407,
        -9.713151484902482e-06,
        -0.01383196096867323,
        0.002994330134242773,
        -0.009786540642380714,
        -0.008803926408290863,
        0.00810170453041792,
        -0.0010814751731231809
      ],
      [
        0.006903002504259348,
        -0.014077612198889256,
        -0.003377004526555538,
        0.010805539786815643,
        -0.014568296261131763,
        -0.008445306681096554,
        -0.003503324231132865,
        -0.016123874112963676,
        -0.0005295037990435958,
        0.00665385602042079,
        -0.009382842108607292,
        0.009403720498085022,
        0.01076554972678423,
        0.0014508303720504045,
        0.004241051152348518,
        0.013189267367124557,
        -0.000873507815413177,
        -0.004121509846299887,
        0.006380327045917511,
        0.006654567550867796,
        0.006100171711295843,
        -0.008976875804364681,
        -0.0010893434518948197,
        0.0016253098146989942,
        0.003556045237928629,
        0.004564136266708374,
        0.0032798333559185266,
        0.01383298635482788,
        -0.009844702668488026,
        -0.02066611684858799,
        0.0045309714041650295,
        -0.0014826799742877483,
        -0.012175444513559341,
        -0.00985132809728384,
        0.008759004063904285,
        -0.02054349146783352,
        -0.008027002215385437,
        0.006162181496620178,
        0.008283100090920925,
        0.0018531314563006163,
        -0.003261079080402851,
        -0.0018348179291933775,
        0.011163201183080673,
        0.011019526049494743,
        -0.014693014323711395,
        -0.0072687300853431225,
        0.0031809050124138594,
        0.00859101302921772,
        -0.005413284059613943,
        -0.0039222100749611855,
        -0.005101182498037815,
        0.000649116700515151,
        -0.015217318199574947,
        0.004350828006863594,
        -0.0033930372446775436,
        -0.008567341603338718,
        0.009123280644416809,
        -0.011095155030488968,
        -0.014913148246705532,
        0.002333090640604496,
        0.00014862815442029387,
        -0.019991982728242874,
        0.005315082613378763,
        -0.0031362895388156176,
        0.004230181220918894,
        -0.007522223517298698,
        0.009067445993423462,
        0.020375292748212814,
        0.009509558789432049,
        -0.0229275394231081,
        0.005517126061022282,
        0.004827627446502447,
        -0.009323600679636002,
        -0.0002215639833593741,
        -0.011767074465751648,
        0.005888413637876511,
        0.0048486096784472466,
        -0.00020077529188711196,
        0.002283477457240224,
        0.008121133781969547,
        0.003643851727247238,
        -0.011637048795819283,
        -0.016110559925436974,
        -0.019006026908755302,
        0.0017087339656427503,
        -0.002684599021449685,
        0.0036785234697163105,
        -0.010963884182274342,
        -0.007405871991068125,
        -0.00691901845857501,
        -0.008310515433549881,
        0.009677895344793797,
        0.011087700724601746,
        0.0011157203698530793,
        -0.01607344299554825,
        0.004133234731853008,
        0.014551456086337566,
        0.004819316789507866,
        -0.006087109446525574,
        0.008223616518080235
      ],
      [
        -0.016344014555215836,
        0.016777748242020607,
        -0.012979639694094658,
        -0.020314080640673637,
        0.0024965382181108,
        -0.001696100807748735,
        -0.002904170425608754,
        0.005624104756861925,
        0.0037466983776539564,
        -0.00651962636038661,
        0.008771494030952454,
        0.02195684425532818,
        0.007899641059339046,
        -0.020877446979284286,
        -0.013767879456281662,
        0.002262275433167815,
        -0.0035074029583483934,
        0.011938782408833504,
        0.0027063190937042236,
        -0.020688869059085846,
        0.0036343219690024853,
        0.011644186452031136,
        0.003978879190981388,
        -0.00982224103063345,
        0.00929661002010107,
        0.008117309771478176,
        -0.0043300907127559185,
        -0.0035646134056150913,
        0.0021748484577983618,
        0.009757010266184807,
        -5.1222934416728094e-05,
        0.004571990109980106,
        0.010813797824084759,
        -0.006603437941521406,
        -0.010665404610335827,
        -0.00195428729057312,
        0.002022380940616131,
        0.002309727482497692,
        -0.011328792199492455,
        0.005152801983058453,
        -0.002999761374667287,
        -0.006241430062800646,
        0.007250675465911627,
        -0.003033599117770791,
        -0.002219566609710455,
        -0.014616732485592365,
        0.015324997715651989,
        -0.001011011190712452,
        0.027484223246574402,
        -0.012551278807222843,
        -0.0020992113277316093,
        0.01934618130326271,
        0.0018665585666894913,
        -0.0015885925386101007,
        -0.0006901816814206541,
        0.0008671772084198892,
        0.003375038970261812,
        -0.008163603954017162,
        -0.001776974881067872,
        -0.0129868658259511,
        0.008433958515524864,
        -0.004026105161756277,
        0.013661233708262444,
        -0.0032896948978304863,
        -0.0070120650343596935,
        0.0007046356913633645,
        -0.015368757769465446,
        -0.030627593398094177,
        -0.002124661346897483,
        -0.015523379668593407,
        -0.003061477793380618,
        0.0011549919145181775,
        0.002024286426603794,
        -0.005486925132572651,
        0.017320992425084114,
        0.0033470552880316973,
        0.00772115821018815,
        -0.001967306947335601,
        0.003422379493713379,
        0.018506743013858795,
        -0.0012800085823982954,
        -0.006845581345260143,
        0.00083149567944929,
        0.007724475115537643,
        -0.016441358253359795,
        -0.007873441092669964,
        -0.009897515177726746,
        -0.004319352563470602,
        -0.017189813777804375,
        0.032296400517225266,
        0.0023463366087526083,
        0.005798859987407923,
        -0.011229916475713253,
        -0.00253779673948884,
        0.001534115057438612,
        -0.007380724884569645,
        0.0060395351611077785,
        -0.007834522984921932,
        -0.006635839585214853,
        -0.004200631286948919
      ],
      [
        -0.008299495093524456,
        -0.0011439230293035507,
        -0.0015093308174982667,
        -0.009050936438143253,
        0.005054399836808443,
        -0.0009757845546118915,
        0.014665831811726093,
        -0.008667336776852608,
        -0.02087732031941414,
        0.004311427474021912,
        0.0001609394239494577,
        -0.0030378212686628103,
        -0.024386340752243996,
        0.004338234197348356,
        0.009266666136682034,
        -0.010374879464507103,
        0.0029909189324826,
        0.0021813323255628347,
        -0.0007086021942086518,
        -0.016527803614735603,
        0.00318805780261755,
        0.0004150032764300704,
        -0.020784728229045868,
        0.0012668445706367493,
        0.002188608516007662,
        0.004454511217772961,
        0.008509070612490177,
        -0.003421550616621971,
        -0.02274760603904724,
        -0.00327048497274518,
        -0.006783738732337952,
        -0.004398527089506388,
        0.009200053289532661,
        0.009908166714012623,
        0.018526097759604454,
        -0.005319678690284491,
        -0.0013608421431854367,
        -0.0077161407098174095,
        0.009372123517096043,
        0.012744725681841373,
        -0.006568984128534794,
        0.007837656885385513,
        0.003485037013888359,
        -0.021361662074923515,
        -0.0034909581299871206,
        -0.0007991721504367888,
        -0.0149083798751235,
        0.0065249232575297356,
        -0.0005506917368620634,
        0.0005581523291766644,
        -0.00019578548381105065,
        -0.0136486841365695,
        -0.0004325812915340066,
        0.0015195204177871346,
        0.0013420679606497288,
        -0.008389269933104515,
        0.0007487268303520977,
        0.0022281459532678127,
        0.0021787681616842747,
        0.009092307649552822,
        0.013412808068096638,
        0.006866023410111666,
        0.015796061605215073,
        0.00826695654541254,
        -0.013528800569474697,
        0.002006670692935586,
        0.016655756160616875,
        0.005445691291242838,
        -0.0020253409165889025,
        -0.007429621648043394,
        -0.007230009417980909,
        -0.0045680389739573,
        0.0016973476158455014,
        0.007486212067306042,
        0.0036718554329127073,
        0.0007002447382546961,
        0.01904495246708393,
        -0.009857307188212872,
        -0.017786765471100807,
        0.012355051934719086,
        0.012021852657198906,
        -0.003274481277912855,
        0.004926962312310934,
        0.015486604534089565,
        0.0057773166336119175,
        -0.0009002331644296646,
        -0.0007054843008518219,
        -0.012991837225854397,
        -0.011201492510735989,
        0.00012007553596049547,
        0.005384552758187056,
        -0.0005113294464536011,
        0.0041496423073112965,
        -0.005611684639006853,
        -0.002152474131435156,
        -0.013511193916201591,
        -0.01409172173589468,
        0.006516317371279001,
        -0.0035057677887380123,
        0.009102271869778633
      ],
      [
        -0.01486038975417614,
        0.007373002823442221,
        0.004441616591066122,
        -0.0034910407848656178,
        -0.015702657401561737,
        0.021862024441361427,
        0.010303748771548271,
        0.0033990575466305017,
        0.00489404983818531,
        -0.004040449392050505,
        0.0027880140114575624,
        0.007485049776732922,
        0.028409434482455254,
        -0.007831905037164688,
        0.01779264211654663,
        -0.008096739649772644,
        0.0001858235482359305,
        0.002315983409062028,
        0.006977220065891743,
        0.0015248478157445788,
        -0.0005387837300077081,
        0.01914902776479721,
        -0.012845794670283794,
        0.002355776960030198,
        0.0012352644698694348,
        0.00010621431283652782,
        -0.014577764086425304,
        -0.003383008763194084,
        -0.009435959160327911,
        -0.011000706814229488,
        0.003619845723733306,
        0.004214227199554443,
        -0.01190372183918953,
        -0.0020382863003760576,
        0.002156711183488369,
        -0.011772849597036839,
        -0.012563728727400303,
        0.007522220257669687,
        0.027905642986297607,
        -0.011724312789738178,
        0.0020424926187843084,
        -0.009285109117627144,
        -0.012830674648284912,
        0.006833560764789581,
        0.007032097317278385,
        0.001480372971855104,
        0.0028758894186466932,
        0.0056367539800703526,
        0.00456972373649478,
        0.005565341096371412,
        0.0004948560963384807,
        0.00955858826637268,
        0.004949028603732586,
        0.01194741576910019,
        0.0021953515242785215,
        0.003924764692783356,
        -0.006967972964048386,
        0.0049972073175013065,
        0.006898241117596626,
        0.0015690263826400042,
        -0.020630711689591408,
        -0.0014836014015600085,
        0.007329538930207491,
        -0.00026445096591487527,
        0.002383811166509986,
        -0.007901355624198914,
        -0.0012475511757656932,
        0.007051711902022362,
        -0.0030733288731426,
        0.019926346838474274,
        -0.014039428904652596,
        -0.015460582450032234,
        0.009651511907577515,
        0.012982886284589767,
        -0.002602306194603443,
        0.011878379620611668,
        0.002280536340549588,
        -0.003926291596144438,
        0.008160769939422607,
        -0.013008234091103077,
        0.0011525485897436738,
        0.0028624311089515686,
        -0.006392548326402903,
        0.00908664707094431,
        2.1864185328013264e-05,
        0.0031988872215151787,
        0.01038310956209898,
        -0.018703563138842583,
        -0.005383946932852268,
        -0.012166368775069714,
        -0.011722294613718987,
        -0.008187017403542995,
        0.00721310917288065,
        0.0026192492805421352,
        -0.0030235706362873316,
        -0.01584283448755741,
        0.007395636755973101,
        0.0064214617013931274,
        -0.020216451957821846,
        -0.01820877566933632
      ],
      [
        0.009936236776411533,
        0.013363979756832123,
        -0.004236395470798016,
        -0.012549052946269512,
        0.0011532402131706476,
        -0.011185617186129093,
        0.01446780189871788,
        0.006934531033039093,
        0.0163401011377573,
        -0.013781007379293442,
        0.008909487165510654,
        0.005060296505689621,
        0.005524070933461189,
        -0.0016504491213709116,
        -0.0075755491852760315,
        0.002429350046440959,
        -0.0041438620537519455,
        0.004058385733515024,
        -0.002655556658282876,
        0.007667984813451767,
        0.01270783506333828,
        -0.00849880836904049,
        0.0013653706992045045,
        0.0011462733382359147,
        -0.03089996799826622,
        0.021041929721832275,
        0.006865077652037144,
        0.007025296334177256,
        0.010790837928652763,
        0.028832832351326942,
        0.006507661659270525,
        0.008367659524083138,
        0.008462992496788502,
        -0.005825119558721781,
        -0.0015787776792421937,
        -0.007649559061974287,
        0.0001671934442128986,
        0.0077377683483064175,
        -0.00395679147914052,
        -0.007074522785842419,
        -0.011596848256886005,
        0.010517284274101257,
        0.009430267848074436,
        0.01658865623176098,
        0.006600528955459595,
        -0.008951460011303425,
        0.003761489875614643,
        -0.005694944877177477,
        -0.022044235840439796,
        -0.0011465054703876376,
        -0.01834000088274479,
        -0.010705288499593735,
        0.009745885618031025,
        0.00974638294428587,
        0.006382049061357975,
        0.014732809737324715,
        -0.002330407965928316,
        0.0043622287921607494,
        0.004302418325096369,
        -0.015981899574398994,
        -0.0014853212051093578,
        0.004905765876173973,
        0.0016892892308533192,
        0.0017455792985856533,
        0.006410514935851097,
        -0.010792991146445274,
        0.027040477842092514,
        0.005594379268586636,
        -0.00623785937204957,
        0.004193303640931845,
        -0.00175969407428056,
        0.0022625792771577835,
        -0.008786146529018879,
        0.0001950126315932721,
        0.0046975985169410706,
        0.0034814104437828064,
        -0.018985316157341003,
        -0.0020605004392564297,
        0.01753339171409607,
        0.011873356997966766,
        0.0152230029925704,
        0.0010384718189015985,
        0.001779623911716044,
        0.006252706050872803,
        -0.003235628129914403,
        0.01915954053401947,
        -0.008992438204586506,
        -0.007382604293525219,
        0.013654466718435287,
        0.0037665837444365025,
        -0.0212485883384943,
        -0.0016306889010593295,
        0.01438202429562807,
        -0.007932823151350021,
        -0.012559904716908932,
        0.0013897179160267115,
        -0.01550905592739582,
        0.011930250562727451,
        -0.024162132292985916,
        0.00549094146117568
      ],
      [
        -0.003999251872301102,
        -0.00536683714017272,
        -0.010217574425041676,
        0.004996561910957098,
        -0.01965782605111599,
        0.009191286750137806,
        -0.009335019625723362,
        -0.027131199836730957,
        0.00688922917470336,
        -0.013350231572985649,
        -0.005479283165186644,
        -0.005604686681181192,
        0.008199220523238182,
        -0.014729264192283154,
        0.0013201668625697494,
        -0.007945828139781952,
        0.01925869844853878,
        -0.010937691666185856,
        0.0014265243662521243,
        0.011055517941713333,
        0.004950405098497868,
        -0.003854988142848015,
        0.0047911680303514,
        -0.0047208755277097225,
        -0.009432734921574593,
        -0.004981904290616512,
        -0.0009454736718907952,
        0.008224091492593288,
        -0.012172902934253216,
        -0.004775502253323793,
        0.0233573280274868,
        0.0033316398039460182,
        0.004669102840125561,
        0.0028392428066581488,
        -0.00890524685382843,
        -0.004119936376810074,
        0.007515749894082546,
        -0.0008548611076548696,
        -0.009135185740888119,
        -0.008090912364423275,
        -0.008817299269139767,
        -0.009224231354892254,
        -0.010524134151637554,
        -0.005933254025876522,
        -0.004177663009613752,
        0.001279838033951819,
        -0.0042237150482833385,
        0.006736329756677151,
        0.012674103491008282,
        0.02515488490462303,
        -0.006986831780523062,
        0.010900497436523438,
        -0.00613738875836134,
        0.0027663796208798885,
        -0.00020365553791634738,
        -0.0184115469455719,
        0.006899308878928423,
        0.0014818599447607994,
        -0.0026531079784035683,
        0.0019040758488699794,
        -0.01927145943045616,
        -0.016927460208535194,
        0.01193230040371418,
        0.010411093942821026,
        -0.01244601421058178,
        -0.0034064005594700575,
        -0.01638120971620083,
        -0.009866590611636639,
        -0.012062311172485352,
        -0.002597144804894924,
        0.017607811838388443,
        0.003596383612602949,
        0.021946407854557037,
        0.007201438304036856,
        -0.007761860266327858,
        0.012148408219218254,
        0.000983818550594151,
        0.00871091429144144,
        -0.008953298442065716,
        -0.005773666314780712,
        -0.01892068050801754,
        0.010319715365767479,
        -0.00020846321422141045,
        -0.0016879154136404395,
        0.0062303668819367886,
        0.02121630124747753,
        0.006857338361442089,
        -0.017635034397244453,
        -0.013287661597132683,
        0.024270469322800636,
        0.004968767520040274,
        -0.012148682028055191,
        0.02323007769882679,
        0.005931331776082516,
        -0.023213151842355728,
        -0.021310564130544662,
        0.005859918426722288,
        -0.010246052406728268,
        0.001464271335862577,
        -0.0047513083554804325
      ],
      [
        -0.004955297335982323,
        -0.0014197357231751084,
        0.0007643555873073637,
        0.008751626126468182,
        -0.0098920539021492,
        0.017831025645136833,
        -0.006193054839968681,
        0.0013415400171652436,
        0.007912271656095982,
        -0.026642560958862305,
        -0.0013001648476347327,
        0.00623156176880002,
        -0.014490117318928242,
        0.002620469080284238,
        0.009989878162741661,
        -0.015317895449697971,
        -0.009547791443765163,
        0.004367575980722904,
        0.005683409981429577,
        -0.004845545627176762,
        0.010339354164898396,
        -0.0015893116360530257,
        0.028789808973670006,
        0.006946435198187828,
        -0.007042340002954006,
        -0.002325974404811859,
        -0.002278181491419673,
        0.0003715047496370971,
        -0.016180304810404778,
        -0.0014242728939279914,
        -0.005219697020947933,
        0.0012493242975324392,
        -0.009010743349790573,
        0.005596297327429056,
        0.0022611457388848066,
        0.0016520704375579953,
        0.005134834907948971,
        -0.009050141088664532,
        -0.011501042172312737,
        -0.018176378682255745,
        -0.0022597459610551596,
        0.013113887049257755,
        0.0013763856841251254,
        0.006945167668163776,
        -0.0011332995491102338,
        -0.0007930475985631347,
        0.007076059002429247,
        -0.00029874814208596945,
        0.014070555567741394,
        0.014917579479515553,
        0.02128668501973152,
        -0.009226051159203053,
        -0.002552642486989498,
        -0.004676048178225756,
        0.0026996168307960033,
        -0.006653558928519487,
        0.0033033404033631086,
        0.0019214370986446738,
        -0.006592840887606144,
        0.0037532055284827948,
        -0.013195213861763477,
        0.0010336264967918396,
        0.006613737903535366,
        -0.00838080607354641,
        0.006272895727306604,
        0.01126558892428875,
        -0.0006414521485567093,
        0.0046501969918608665,
        0.004511666484177113,
        -0.009530212730169296,
        0.004486004821956158,
        0.009435666725039482,
        -0.011646417900919914,
        0.02432657591998577,
        -0.012138153426349163,
        0.007921355776488781,
        0.0059162019751966,
        -0.010226317681372166,
        -0.013907083310186863,
        0.006104278843849897,
        -0.01129289623349905,
        0.004937734454870224,
        0.0018173069693148136,
        0.020580988377332687,
        -0.003577143419533968,
        -0.01116127334535122,
        -0.002875549951568246,
        0.0031799739226698875,
        -0.001100639346987009,
        -0.005724122282117605,
        0.010240087285637856,
        -0.0056646899320185184,
        -0.017542405053973198,
        0.02053031325340271,
        0.009113493375480175,
        -0.016405446454882622,
        -0.00169861048925668,
        0.012026451528072357,
        0.015381434932351112,
        -0.006093184929341078
      ],
      [
        -0.009417567402124405,
        -0.0005418795626610518,
        0.00757055077701807,
        0.003218319034203887,
        -0.00395660474896431,
        0.00968750286847353,
        -0.0016508797416463494,
        0.0030799012165516615,
        0.01988239400088787,
        -0.0013495644088834524,
        -0.014636811800301075,
        -0.009338732808828354,
        -0.01719273254275322,
        0.011634095571935177,
        -0.0016287541948258877,
        0.007893593981862068,
        -0.0033827470615506172,
        0.005492538213729858,
        -0.010664534755051136,
        -0.0019359340658411384,
        -0.014896233566105366,
        0.0059811738319695,
        -0.0068005588836967945,
        -0.011678550392389297,
        0.0014236862771213055,
        0.003335794201120734,
        -0.0013979646610096097,
        -0.01053681317716837,
        0.0003269203007221222,
        0.007113365456461906,
        0.0053939009085297585,
        0.010369556955993176,
        0.0013009929098188877,
        -0.008078428916633129,
        0.006539368070662022,
        0.0023923469707369804,
        0.0016416242578998208,
        -0.004385485779494047,
        -0.005324814934283495,
        0.009127289988100529,
        -0.007923802360892296,
        -0.004121973644942045,
        -0.00469838734716177,
        0.007514966186136007,
        -0.009198821149766445,
        0.008264436386525631,
        -0.011434725485742092,
        0.0005649066297337413,
        0.003825205145403743,
        -0.007686869706958532,
        0.01199968159198761,
        0.008301771245896816,
        0.001484739244915545,
        0.0009951849933713675,
        -0.001972009427845478,
        -0.019826805219054222,
        0.002343097236007452,
        -0.008215692825615406,
        -0.0004311962693464011,
        0.006442919373512268,
        0.005206421948969364,
        0.010282456874847412,
        -0.006968536414206028,
        0.010246003977954388,
        -0.002075572032481432,
        0.013264065608382225,
        -0.001349900965578854,
        0.007582901511341333,
        -0.020580627024173737,
        -0.02541394717991352,
        0.01305478997528553,
        0.013320427387952805,
        0.011753375642001629,
        0.020366361364722252,
        -0.005415183957666159,
        -0.004640745930373669,
        -0.002521330025047064,
        -0.0061322469264268875,
        -0.001975487219169736,
        -0.004696280229836702,
        0.013707546517252922,
        -0.003741547465324402,
        -0.010031661950051785,
        -0.011804861016571522,
        0.018608471378684044,
        0.007481392007321119,
        0.008678414858877659,
        -0.003186439163982868,
        -0.003012510482221842,
        -0.007431431207805872,
        0.01034524105489254,
        0.006580864544957876,
        -0.010181190446019173,
        -0.0029518173541873693,
        0.002945877145975828,
        -0.0009773477213457227,
        -0.0002832237514667213,
        0.006534350570291281,
        0.014732621610164642,
        0.007332987617701292
      ],
      [
        0.002865628572180867,
        -0.0011396156623959541,
        0.0022906127851456404,
        -0.012248266488313675,
        -0.003055943176150322,
        -0.0225724745541811,
        0.0015754958149045706,
        -0.012601163238286972,
        0.003206668421626091,
        0.0033553214743733406,
        -0.010207573883235455,
        0.010844436474144459,
        0.001874889712780714,
        0.0014141733990982175,
        -0.004190394654870033,
        -0.0019158473005518317,
        -0.020542824640870094,
        -0.0065527260303497314,
        0.0036588076036423445,
        -0.017863336950540543,
        0.009482653811573982,
        0.0070185051299631596,
        0.013771139085292816,
        0.007936091162264347,
        0.003021775744855404,
        -0.005507732275873423,
        0.016258997842669487,
        -0.0008964824373833835,
        0.017448347061872482,
        0.0037797316908836365,
        -0.012127806432545185,
        0.023946328088641167,
        0.004460240714251995,
        -0.01851341500878334,
        -0.014071132987737656,
        0.008749549277126789,
        0.006743787322193384,
        0.005307142622768879,
        0.01328195445239544,
        0.014642171561717987,
        -0.005732756573706865,
        0.004756929352879524,
        -0.005764021072536707,
        0.009268738329410553,
        -0.02097756788134575,
        0.006473453715443611,
        0.002360816113650799,
        -0.0039263032376766205,
        -0.012075446546077728,
        -0.005761303938925266,
        -0.015239967033267021,
        -0.006146009545773268,
        0.0004891606513410807,
        0.017343906685709953,
        0.002872553886845708,
        0.011966799385845661,
        0.003053738037124276,
        0.002225585514679551,
        -0.0022710151970386505,
        0.0076861875131726265,
        0.001490674912929535,
        0.0007445781375281513,
        -0.023777736350893974,
        0.0069408235140144825,
        -0.0006470379885286093,
        -0.01304719503968954,
        -0.0008582590380683541,
        -0.009115667082369328,
        0.010501580312848091,
        0.0128924660384655,
        -0.008562156930565834,
        0.0006491903332062066,
        0.0037215938791632652,
        0.0029934339690953493,
        0.0018147501396015286,
        0.008525719866156578,
        -0.001426471397280693,
        -0.008754326961934566,
        -0.0026145365554839373,
        -0.014303009025752544,
        0.009121614508330822,
        0.0005816248012706637,
        -0.013796215876936913,
        0.003983543254435062,
        0.020669128745794296,
        0.018107060343027115,
        0.0026450830046087503,
        -0.01488112285733223,
        -0.005254067480564117,
        -0.0031796437688171864,
        -0.010834199376404285,
        -0.005399936810135841,
        -0.0056383335031569,
        -0.00818853359669447,
        -0.004996940027922392,
        -0.007649245671927929,
        0.008231244049966335,
        0.006297275424003601,
        0.002615429926663637,
        0.004813860636204481
      ],
      [
        -0.003541826270520687,
        -0.008419717662036419,
        -0.00887569971382618,
        0.0039331670850515366,
        0.013184885494410992,
        0.0078027877025306225,
        -0.011601622216403484,
        -0.014361731708049774,
        -0.006205312442034483,
        -0.01917199417948723,
        0.00405840203166008,
        0.013509956188499928,
        -0.008941126056015491,
        0.007371302228420973,
        0.008367128670215607,
        0.0005210092640481889,
        0.010220075957477093,
        0.0011692049447447062,
        0.005514355842024088,
        0.017986083403229713,
        0.002446142490953207,
        -0.014852200634777546,
        0.0026879815850406885,
        0.009701641276478767,
        0.014611930586397648,
        -0.0067347087897360325,
        -0.02021763287484646,
        -0.00036094157258048654,
        -0.02004178985953331,
        -0.0026683055330067873,
        -0.006568228825926781,
        0.00954399909824133,
        0.008143607527017593,
        0.0022781393490731716,
        0.006700178142637014,
        -0.015480399131774902,
        -0.009426651522517204,
        0.02032802626490593,
        0.0062915971502661705,
        0.015865353867411613,
        0.026359418407082558,
        0.01990647427737713,
        0.0049628932029008865,
        -0.014658903703093529,
        0.002853046404197812,
        0.014570159837603569,
        -0.0200772974640131,
        -0.012246754951775074,
        -0.009399794973433018,
        0.005852759815752506,
        0.012245748192071915,
        0.0011020562378689647,
        -0.0002699323813430965,
        -0.009780013002455235,
        -0.00499374745413661,
        0.0003375653177499771,
        -0.017848310992121696,
        -0.014977315440773964,
        0.006157968658953905,
        -0.005625924561172724,
        0.00013329675130080432,
        0.004441514611244202,
        -0.010268288664519787,
        0.0001257589174201712,
        0.001719629275612533,
        0.002117767231538892,
        0.011847428046166897,
        -0.007634745445102453,
        -0.009485377930104733,
        -0.013734736479818821,
        0.004305792041122913,
        -0.024491440504789352,
        -0.017849942669272423,
        -0.009716343134641647,
        0.0038341351319104433,
        0.005076034925878048,
        -0.008010773919522762,
        0.009524785913527012,
        0.008270177990198135,
        0.011209560558199883,
        -0.00111351755913347,
        -0.00897825788706541,
        0.0037362617440521717,
        -0.004533110652118921,
        -0.027707960456609726,
        0.003684115828946233,
        -0.018672771751880646,
        -0.014209309592843056,
        0.009533044882118702,
        -0.012221026234328747,
        -0.007241722662001848,
        -0.0027527122292667627,
        0.010458509437739849,
        -0.0012890369398519397,
        -0.00406933156773448,
        0.0003295076312497258,
        0.008118824101984501,
        -0.0010015189182013273,
        -0.0036603573244065046,
        0.016241613775491714
      ],
      [
        0.0021051994990557432,
        -0.0030522882007062435,
        -0.0019942419603466988,
        -0.0009364002617076039,
        -0.01969330385327339,
        -0.004531748127192259,
        -0.005016304552555084,
        -0.0024378953967243433,
        0.0035964874550700188,
        -0.014917165972292423,
        0.0032273095566779375,
        0.007675741333514452,
        0.00031192300957627594,
        -0.00538006704300642,
        0.0031212104950100183,
        -0.015016117133200169,
        -0.0028305829036980867,
        0.005132630933076143,
        -0.0012681223452091217,
        0.012630866840481758,
        -0.0022512543946504593,
        0.002408560598269105,
        -0.008689703419804573,
        -0.016211465001106262,
        0.0039301407523453236,
        -0.003533964976668358,
        -0.0007316896226257086,
        0.0085549121722579,
        -0.0027352042961865664,
        -0.01032656617462635,
        0.006294521037489176,
        -0.014848447404801846,
        -0.003769740927964449,
        -0.0009608912514522672,
        0.008974829688668251,
        0.006541121285408735,
        0.0010520818177610636,
        0.00896619912236929,
        -0.003264255356043577,
        0.006622919347137213,
        -0.009364881552755833,
        0.00019846161012537777,
        0.002413584850728512,
        -0.003260017605498433,
        0.004300193395465612,
        0.009244021959602833,
        0.012811741791665554,
        0.003972782287746668,
        0.012703324668109417,
        -0.010763735510408878,
        0.0027853723149746656,
        0.0026168376207351685,
        -0.02464592456817627,
        -0.0011784188682213426,
        -0.015141363255679607,
        -0.013692187145352364,
        -0.012160347774624825,
        -0.005203853826969862,
        9.731459431350231e-05,
        0.0128812026232481,
        -0.003115838160738349,
        0.011711831204593182,
        -0.0010905154049396515,
        -0.011022341437637806,
        0.010126305744051933,
        0.0036781930830329657,
        -0.005660376511514187,
        0.01050584390759468,
        0.00969084445387125,
        -0.00500208605080843,
        0.021455328911542892,
        0.0028591202571988106,
        0.003911916166543961,
        0.014951144345104694,
        -0.010165824554860592,
        0.011365887708961964,
        0.017237229272723198,
        0.0065902229398489,
        -0.011092791333794594,
        -0.0048995111137628555,
        0.01520505640655756,
        -0.004465440288186073,
        0.0033773588947951794,
        0.0032956446520984173,
        -0.002356437500566244,
        0.003822013968601823,
        -0.008480011485517025,
        -0.004462964832782745,
        -0.02024778351187706,
        0.002093252958729863,
        0.0011204092297703028,
        0.0032673885580152273,
        -0.00188753183465451,
        0.006772506516426802,
        -0.0075739542953670025,
        -0.0035829057451337576,
        -0.008870045654475689,
        -0.005315443035215139,
        0.002032690914347768,
        0.00960401352494955
      ],
      [
        0.016297921538352966,
        -0.0015566764632239938,
        -0.010958237573504448,
        0.0014001823728904128,
        -0.0015067890053614974,
        0.0142895532771945,
        -0.010433705523610115,
        0.0011509442701935768,
        0.0037035043351352215,
        0.0013305636821314692,
        -0.015818683430552483,
        0.0030373595654964447,
        -0.007826851680874825,
        0.013163883239030838,
        0.0015441903378814459,
        -0.018489466980099678,
        0.011070720851421356,
        0.0006371351191774011,
        -0.005388360470533371,
        -0.00040833960520103574,
        0.010727924294769764,
        0.004069289658218622,
        -0.013011706992983818,
        0.0005466682487167418,
        -0.004708742257207632,
        0.020366530865430832,
        0.0008163618040271103,
        -0.003747016889974475,
        -0.011199320666491985,
        0.00847892090678215,
        0.01746954582631588,
        -0.007572402711957693,
        -0.005221014376729727,
        0.022164272144436836,
        0.003140856046229601,
        -0.008591187186539173,
        0.002193114487454295,
        0.011173829436302185,
        0.008956842124462128,
        0.011739800684154034,
        0.003570335917174816,
        0.0026790073607116938,
        0.011206218972802162,
        0.003335542045533657,
        -0.00773649662733078,
        0.009602167643606663,
        -0.012093454599380493,
        -0.004504065494984388,
        0.003663167590275407,
        0.001954271225258708,
        0.0005644058110192418,
        -0.00758884334936738,
        -0.007040434516966343,
        0.006692696828395128,
        -0.009541237726807594,
        -0.009546726942062378,
        -0.008806709200143814,
        0.011853869073092937,
        -0.022069379687309265,
        0.011520454660058022,
        0.000663772807456553,
        0.00022078442270867527,
        -0.01035891380161047,
        0.009933482855558395,
        -0.0033180878963321447,
        -0.0142514668405056,
        0.0016586041310802102,
        0.0013740768190473318,
        0.004261976107954979,
        0.0008196850540116429,
        0.0012161191552877426,
        -0.011743606999516487,
        0.01601795107126236,
        -0.0012312167091295123,
        0.002744105877354741,
        0.002439498668536544,
        -0.0008710281108506024,
        0.0025910825934261084,
        -0.020782897248864174,
        0.0010855334112420678,
        -0.003936541732400656,
        0.014518710784614086,
        -0.002296921331435442,
        -0.007562948390841484,
        0.010282430797815323,
        0.0027706932742148638,
        0.007954454980790615,
        -0.0017244088230654597,
        -0.013869651593267918,
        0.008249822072684765,
        0.000992793939076364,
        0.0007382084149867296,
        -0.00012613003491424024,
        0.02190469764173031,
        0.0023195252288132906,
        0.024515042081475258,
        0.014429610222578049,
        0.002566566690802574,
        0.006205669138580561,
        -0.0034240379463881254
      ],
      [
        0.013822931796312332,
        0.014441804960370064,
        0.016906404867768288,
        -0.0014203586615622044,
        -0.006978174205869436,
        -0.008700172416865826,
        -0.008386438712477684,
        -0.0071194227784872055,
        -0.005383283365517855,
        -0.003449279349297285,
        -0.008556141518056393,
        0.009187997318804264,
        -0.009679922834038734,
        0.010628948919475079,
        0.016450881958007812,
        -0.0024532624520361423,
        0.017041834071278572,
        0.0029819703195244074,
        0.007856704294681549,
        -0.0006069800583645701,
        0.008754395879805088,
        -0.004588953219354153,
        -0.011076237075030804,
        0.006590201053768396,
        0.010511892847716808,
        0.006081504747271538,
        -0.0006471963715739548,
        0.014878302812576294,
        -0.006363682448863983,
        -0.012155000120401382,
        -0.005894878413528204,
        0.013089125044643879,
        -0.022134101018309593,
        0.0018689512507990003,
        -0.003970324527472258,
        -0.008443105034530163,
        0.00032039725920185447,
        0.026425687596201897,
        -0.009550590999424458,
        0.002278177533298731,
        0.0007705973112024367,
        -0.004694491624832153,
        -0.0036591298412531614,
        -0.0008776236791163683,
        0.004196931608021259,
        0.01474127359688282,
        0.012052414007484913,
        -0.010290511883795261,
        0.0033509540371596813,
        0.0002692116831894964,
        -0.007566852029412985,
        -0.017390428110957146,
        -0.01431080512702465,
        -0.014813794754445553,
        0.004760341718792915,
        0.014800447970628738,
        -0.008814266882836819,
        -0.0037963713984936476,
        0.00016930067795328796,
        -0.003606583457440138,
        0.007472951430827379,
        -0.007671848870813847,
        0.0055550942197442055,
        -0.017821840941905975,
        -0.007173623889684677,
        -0.012590918689966202,
        -0.002111604670062661,
        0.019484858959913254,
        -0.012256699614226818,
        -0.015724049881100655,
        0.0054474566131830215,
        -0.013586191460490227,
        0.0033642929047346115,
        -0.0015375022776424885,
        -0.0031910839024931192,
        -0.001565436483360827,
        -0.005842228420078754,
        -0.02078150399029255,
        0.004770181141793728,
        0.017659315839409828,
        -0.008672730065882206,
        -0.0016514360904693604,
        0.027199791744351387,
        0.013645329512655735,
        0.0039938571862876415,
        -0.006328063551336527,
        -0.016257815062999725,
        0.014524311758577824,
        -0.0059090666472911835,
        -0.009616028517484665,
        0.004188806749880314,
        0.011869885958731174,
        0.0066140275448560715,
        0.002119197743013501,
        -0.013696164824068546,
        0.01371704414486885,
        -0.00027573254192247987,
        -0.00605649733915925,
        0.005161383654922247,
        -0.0029699860606342554
      ],
      [
        -0.0016411191318184137,
        -0.011511825025081635,
        -0.0014277268201112747,
        -9.991321712732315e-05,
        0.0024379452224820852,
        -0.00039710442069917917,
        0.016248926520347595,
        -0.004012586548924446,
        0.009570571593940258,
        -0.013593202456831932,
        -0.004623265005648136,
        -0.0006558726308867335,
        0.0017719384049996734,
        -0.005862367805093527,
        0.0011153697269037366,
        -0.011603692546486855,
        -1.18039542940096e-05,
        0.0014243519399315119,
        -0.0012313268380239606,
        -0.024915171787142754,
        -0.016634054481983185,
        0.017552562057971954,
        -0.0059135183691978455,
        0.005127124488353729,
        0.006884726230055094,
        -0.00604465464130044,
        0.008210761472582817,
        -0.0006021211156621575,
        0.007047370076179504,
        0.0032796491868793964,
        0.00385489733889699,
        0.01574699394404888,
        0.0030894731171429157,
        -0.006710019428282976,
        0.008882485330104828,
        0.015632687136530876,
        0.007717115338891745,
        -0.0016365173505619168,
        -0.002596326405182481,
        -0.018075237050652504,
        -0.005342950113117695,
        -0.02110516093671322,
        -0.0016775866970419884,
        -0.018965257331728935,
        -0.0006578864995390177,
        0.004677596502006054,
        0.020834436640143394,
        0.01668962836265564,
        -0.007042247336357832,
        0.0096486397087574,
        0.0009895513067021966,
        0.00867464393377304,
        0.03321881592273712,
        -0.00925715733319521,
        0.015123110264539719,
        0.004685718100517988,
        -0.013559930957853794,
        0.007231221068650484,
        0.007873067632317543,
        0.014242406003177166,
        -0.010511410422623158,
        -0.002335129538550973,
        -0.004901951178908348,
        -0.007650396786630154,
        0.0037663080729544163,
        0.00925715733319521,
        0.0016899132169783115,
        -0.007617495022714138,
        0.0059886169619858265,
        0.011094396002590656,
        -0.015264332294464111,
        0.00028456340078264475,
        -0.0063536143861711025,
        0.010992621071636677,
        0.0038944908883422613,
        0.0029350854456424713,
        0.003044013399630785,
        -0.002614797791466117,
        0.005317667033523321,
        -0.0038104390259832144,
        -0.014763157814741135,
        0.006136300042271614,
        0.01691308431327343,
        -0.011873416602611542,
        -0.0015196289168670774,
        0.01416087243705988,
        0.030328812077641487,
        -0.010592405684292316,
        -0.006731339730322361,
        0.017355866730213165,
        0.012079628184437752,
        -0.0033793067559599876,
        0.011283142492175102,
        -0.005721136927604675,
        0.01896027848124504,
        0.010028395801782608,
        0.009962311014533043,
        0.011015034280717373,
        0.004147444386035204,
        -0.0003830176137853414
      ],
      [
        0.0024159091990441084,
        0.0018103431211784482,
        -0.007441280409693718,
        -0.004679839592427015,
        -0.0028291279450058937,
        -0.00971145462244749,
        0.00019242522830609232,
        -0.0031372662633657455,
        0.017531782388687134,
        -0.010735802352428436,
        0.005032111890614033,
        -0.02471809834241867,
        -0.001233698334544897,
        0.016807781532406807,
        -0.0005191291566006839,
        0.007112697698175907,
        -0.0045439559035003185,
        0.003223266452550888,
        0.008371018804609776,
        0.011003909632563591,
        0.011086242273449898,
        -0.003780198283493519,
        -0.014212883077561855,
        -0.006637237966060638,
        0.005797856487333775,
        -0.011572718620300293,
        -0.0090941758826375,
        0.0072573451325297356,
        0.010191407054662704,
        -0.009821755811572075,
        -0.0007551845628768206,
        -0.010809537023305893,
        -0.00519843865185976,
        0.006145349238067865,
        0.005043176934123039,
        -0.0036581428721547127,
        0.0027777606155723333,
        -0.005846687592566013,
        -0.002620475832372904,
        0.001820045872591436,
        -0.00772282388061285,
        0.0014525726437568665,
        -0.003252404509112239,
        -0.0040513500571250916,
        -0.01624359004199505,
        -0.006072149146348238,
        0.022181369364261627,
        -0.01148755569010973,
        -0.007995865307748318,
        -0.005797851365059614,
        0.0062525467947125435,
        0.0008039032691158354,
        -0.01677996665239334,
        0.0016157296486198902,
        0.01725650765001774,
        -0.008560597896575928,
        0.007383779156953096,
        0.01753902994096279,
        0.006204582285135984,
        -0.008365792222321033,
        0.012634484097361565,
        0.005913240369409323,
        -0.00540774455294013,
        -0.010893010534346104,
        0.00637882761657238,
        -0.013590569607913494,
        0.007277308031916618,
        -0.01760413683950901,
        0.0197344608604908,
        -0.010507860220968723,
        -0.011206373572349548,
        0.025370869785547256,
        -0.0075169154442846775,
        3.120565816061571e-05,
        -0.005000597331672907,
        0.00493635656312108,
        0.014396793209016323,
        0.0010147741995751858,
        -0.007719495799392462,
        -0.004920888226479292,
        -0.005635054782032967,
        -0.002533161547034979,
        0.005017956253141165,
        -0.014750516042113304,
        0.008076906204223633,
        -0.01097053661942482,
        -0.010029271245002747,
        0.009400838986039162,
        0.002606932772323489,
        0.001456935191527009,
        0.002297306200489402,
        0.0105906892567873,
        -0.004111061803996563,
        -0.011247891932725906,
        0.003632978070527315,
        0.0009253637981601059,
        0.0006927853100933135,
        0.007146453484892845,
        -0.0070718624629080296,
        0.011945292353630066
      ],
      [
        -0.0014886396238580346,
        -0.01630096323788166,
        -0.004647888243198395,
        -0.023576995357871056,
        -0.010409543290734291,
        -0.006896744016557932,
        0.006538860034197569,
        0.0023438544012606144,
        0.007867643609642982,
        -0.008236687630414963,
        -0.004002153407782316,
        0.005338957067579031,
        0.008897220715880394,
        0.008803377859294415,
        -0.007108856923878193,
        0.008959056809544563,
        -0.005538916680961847,
        -0.004577646963298321,
        0.0021862138528376818,
        -0.003579531330615282,
        0.01286043506115675,
        -0.008223071694374084,
        -0.01675594225525856,
        -0.0028147511184215546,
        0.011857506819069386,
        -0.0004982170066796243,
        0.02323199063539505,
        -0.00035496708005666733,
        -0.000852659170050174,
        -0.00707959895953536,
        0.002492424100637436,
        -0.017079025506973267,
        0.006116920616477728,
        0.005643017590045929,
        -0.015083893202245235,
        0.012867101468145847,
        0.0145090501755476,
        -0.0008870905148796737,
        0.00938366912305355,
        -0.0023626626934856176,
        -0.003940431866794825,
        -0.015289610251784325,
        0.015699682757258415,
        0.0013878028839826584,
        -0.011521173641085625,
        -0.002912241732701659,
        -0.018922442570328712,
        -0.0064591350965201855,
        0.022690201178193092,
        -0.012823834083974361,
        -0.013567870482802391,
        0.0044445195235311985,
        -0.00475078821182251,
        0.024243835359811783,
        0.028080040588974953,
        0.008003397844731808,
        0.016662079840898514,
        -0.008798015303909779,
        0.011504101566970348,
        0.003585018217563629,
        -0.013498250395059586,
        0.003765811212360859,
        0.007942370139062405,
        -0.015928318724036217,
        0.0025252767372876406,
        -0.022775577381253242,
        0.014593682251870632,
        0.006153288297355175,
        0.0005843312246724963,
        -0.028533469885587692,
        -0.005588869098573923,
        -0.0070546651259064674,
        0.015074810944497585,
        0.015662193298339844,
        0.00344207976013422,
        0.0015374477952718735,
        -0.005274230148643255,
        -0.0013897342141717672,
        -0.000586436886806041,
        0.0013336100382730365,
        -0.01199976447969675,
        0.011685466393828392,
        -0.00229226378723979,
        0.014386183582246304,
        -0.015472281724214554,
        0.0018396886298432946,
        -1.882608194136992e-05,
        -0.005307857412844896,
        0.009018472395837307,
        -0.00025236018700525165,
        0.01300906017422676,
        0.0010628558229655027,
        0.009773910976946354,
        -0.008417686447501183,
        0.00038076017517596483,
        -0.007100427523255348,
        -0.014247879385948181,
        -6.230292638065293e-05,
        -0.02144617587327957,
        -0.00020359360496513546
      ],
      [
        -0.0027163454797118902,
        0.0035943682305514812,
        0.010283163748681545,
        -0.0176558718085289,
        -0.004472074564546347,
        0.004437833558768034,
        0.0009351538028568029,
        0.00551952188834548,
        -0.007249764632433653,
        0.0015450813807547092,
        0.013387570157647133,
        0.007246290799230337,
        0.011213473975658417,
        0.012425516732037067,
        -0.008009353652596474,
        0.0002355627657379955,
        -0.0067491368390619755,
        -0.025974979624152184,
        0.0006221157964318991,
        0.011559311300516129,
        0.0028836599085479975,
        0.003962287213653326,
        0.004939701408147812,
        0.012215198948979378,
        -0.00307598733343184,
        0.005433616694062948,
        -0.016752758994698524,
        0.007000861223787069,
        0.012611286714673042,
        -0.005513638723641634,
        -0.02011941187083721,
        0.012249493040144444,
        0.01154310442507267,
        -0.01666487380862236,
        0.002776574110612273,
        0.020355526357889175,
        0.013214982114732265,
        -0.0034997155889868736,
        -0.0080204913392663,
        0.0025252988561987877,
        0.0037491219118237495,
        -0.0018345501739531755,
        0.00450420705601573,
        -0.0004380203608889133,
        -0.015431069768965244,
        0.0037085171788930893,
        0.0033758406061679125,
        -0.012690214440226555,
        -0.002661039587110281,
        0.009783436544239521,
        -0.018139244988560677,
        0.005360461305826902,
        0.0016458992613479495,
        -0.014184326864778996,
        0.0041152192279696465,
        -0.019420063123106956,
        -0.0005272962735034525,
        0.0009815141092985868,
        0.0011777527397498488,
        -0.007585411891341209,
        0.0026658200658857822,
        0.0019632221665233374,
        -0.006503797136247158,
        -0.0038985295686870813,
        0.005003391765058041,
        -0.005148715805262327,
        -0.0002300974156241864,
        -0.003260970115661621,
        0.00598681578412652,
        0.005900523625314236,
        0.0012310087913647294,
        0.007864394225180149,
        0.0004935936303809285,
        0.0015601731138303876,
        0.01832342892885208,
        0.008346032351255417,
        0.012543254531919956,
        -0.0032255409751087427,
        -0.009687329642474651,
        0.00725735304877162,
        0.0018920048605650663,
        0.003092483151704073,
        0.00796356238424778,
        -0.0066568730399012566,
        0.005191954784095287,
        0.011561499908566475,
        -0.0021857295650988817,
        -0.01767924055457115,
        0.006799629889428616,
        -0.0036777674686163664,
        -0.006445734761655331,
        -0.015142850577831268,
        -0.00695977034047246,
        -0.015981340780854225,
        -0.018734410405158997,
        0.01620277762413025,
        0.00291752559132874,
        0.007984070107340813,
        -0.008993424475193024,
        0.0071606202982366085
      ],
      [
        -0.0009089901577681303,
        -0.009084134362637997,
        -0.004058654420077801,
        0.018055647611618042,
        -0.004166889004409313,
        0.0014943350106477737,
